{"type":"NeuralNetwork","sizes":[27,20,4],"layers":[{"weights":[],"biases":[]},{"weights":[[0.09444823116064072,-0.0499279648065567,-0.20095591247081757,-0.10493700951337814,0.19278046488761902,0.1647857427597046,0.19529925286769867,0.21547026932239532,0.22649385035037994,0.22205489873886108,0.07662816345691681,0.3583500385284424,0.04481326788663864,0.1892412006855011,0.23831553757190704,0.1781328171491623,0.14059558510780334,-0.49031931161880493,-0.45146268606185913,-0.6240016222000122,-0.4788377583026886,-0.5627434849739075,-0.147061288356781,-0.16566382348537445,0.03001275472342968,0.06076119840145111,-0.06297268718481064],[1.1183854341506958,1.153601050376892,0.9841891527175903,0.9008604288101196,0.9777040481567383,0.9200322031974792,0.34943345189094543,0.19933132827281952,0.294810026884079,0.33695241808891296,0.24151112139225006,0.20937782526016235,0.3692219853401184,0.27358245849609375,0.16120228171348572,0.31991732120513916,0.22000889480113983,-1.093422770500183,-0.9266679883003235,-0.8811590671539307,-0.9572011232376099,-0.8573558926582336,-0.7967743873596191,-0.799100399017334,-0.8373646140098572,-0.7938313484191895,-0.7588523626327515],[-0.11807351559400558,-0.0155785595998168,-0.301217257976532,-0.16392767429351807,-0.18710920214653015,0.06205359473824501,-0.13971728086471558,0.001107080839574337,-0.014252547174692154,-0.3243352770805359,-0.1148025244474411,-0.06954267621040344,-0.23111839592456818,-0.2662554085254669,-0.15253861248493195,0.003226370085030794,0.0053615812212228775,0.21520015597343445,0.10451120883226395,0.15974222123622894,0.32563450932502747,-0.01170837227255106,0.14707721769809723,0.211236372590065,0.09165812283754349,0.3450752794742584,0.05805527791380882],[-0.5223721265792847,-0.5359524488449097,-0.4501839876174927,-0.4480551779270172,-0.31902024149894714,-0.2347792387008667,0.008245174773037434,0.014178749173879623,0.09738478809595108,0.20808415114879608,0.13396602869033813,-0.010853954590857029,0.03576792776584625,-0.015386361628770828,0.10277479141950607,0.15517021715641022,0.09438996762037277,1.1033082008361816,1.074479103088379,1.1150727272033691,1.1092671155929565,1.112166166305542,-1.0773392915725708,-1.0163170099258423,-0.9615593552589417,-0.909970223903656,-0.8028199076652527],[1.09748375415802,0.9217867255210876,1.1168923377990723,1.0912721157073975,1.0910089015960693,1.0448037385940552,-0.7666243314743042,-0.7467990517616272,-0.6822314858436584,-0.5597520470619202,-0.5202914476394653,-0.5884373784065247,-0.6276350021362305,-0.5766062140464783,-0.4323844909667969,-0.5573187470436096,-0.5449198484420776,0.09778045862913132,0.043195754289627075,0.010947179049253464,0.25360631942749023,0.1419118493795395,0.16271337866783142,-0.04697025567293167,-0.069454625248909,-0.0849405825138092,-0.043028950691223145],[-0.7750722765922546,-0.8111034035682678,-0.7745424509048462,-0.759375274181366,-0.7157688736915588,-0.613039493560791,0.609876275062561,0.4596724808216095,0.5879939794540405,0.5744422674179077,0.5600523948669434,0.5833462476730347,0.5098142027854919,0.6577998399734497,0.6530600190162659,0.5375561714172363,0.42711612582206726,-1.2616559267044067,-1.3674582242965698,-1.2799965143203735,-1.1566797494888306,-1.155415654182434,1.0197292566299438,0.9169754385948181,0.9463773369789124,0.8945975303649902,0.9827612638473511],[-0.3872790038585663,-0.2721903324127197,-0.43599390983581543,-0.16905033588409424,-0.4299352169036865,-0.08678465336561203,-0.035595428198575974,-0.12078484892845154,0.015762202441692352,-0.284256249666214,-0.12115246802568436,-0.09188557416200638,-0.19715799391269684,-0.1015937328338623,-0.22100690007209778,0.10629943758249283,0.0763421431183815,0.7027725577354431,0.67992103099823,0.49395641684532166,0.7926047444343567,0.564690887928009,-0.17443019151687622,-0.23980946838855743,-0.13127093017101288,-0.048299726098775864,0.08232569694519043],[-0.9607062935829163,-1.1187952756881714,-1.0678859949111938,-0.978477954864502,-0.9889358878135681,-1.0280003547668457,-0.0940655842423439,-0.06184298172593117,-0.18956874310970306,-0.006439974997192621,-0.03073752112686634,0.052583247423172,0.049571309238672256,-0.14296960830688477,-0.2210942953824997,-0.148393452167511,-0.04932894557714462,0.4046148657798767,0.49785855412483215,0.527885913848877,0.4542994499206543,0.41938528418540955,0.8787147998809814,0.7907128930091858,0.6419253945350647,0.7989999055862427,0.5922344923019409],[0.21043363213539124,0.09295232594013214,0.39844417572021484,0.10855468362569809,0.32279661297798157,0.4598538279533386,-0.42930278182029724,-0.3779361844062805,-0.486240416765213,-0.4144015908241272,-0.5260922908782959,-0.40116018056869507,-0.18730077147483826,-0.4630988538265228,-0.37373021245002747,-0.46469321846961975,-0.3011898994445801,-0.3633112609386444,-0.4259169101715088,-0.21588203310966492,-0.22554512321949005,-0.08218593150377274,0.7264822721481323,0.8630893230438232,0.8671057820320129,0.6673391461372375,0.8533358573913574],[-0.46888840198516846,-0.5885184407234192,-0.7342267036437988,-0.6264378428459167,-0.587831974029541,-0.6769092679023743,0.6139348149299622,0.6516955494880676,0.7020819187164307,0.44991305470466614,0.42704465985298157,0.419667512178421,0.5417592525482178,0.6100135445594788,0.5910818576812744,0.5346635580062866,0.38447868824005127,-0.36780866980552673,-0.5356992483139038,-0.39414504170417786,-0.6014730334281921,-0.3705359399318695,0.06772812455892563,-0.032797928899526596,0.05852701514959335,-0.07099069654941559,0.05221658572554588],[-0.7083839178085327,-0.6162121295928955,-0.5386047959327698,-0.77530437707901,-0.5819191932678223,-0.5054863095283508,0.6902339458465576,0.8300259709358215,0.6913135647773743,0.8066656589508057,0.6818863749504089,0.8060902953147888,0.7582207918167114,0.4918549060821533,0.6471871733665466,0.6164588332176208,0.695730447769165,0.3659082353115082,0.1148095577955246,0.31440138816833496,0.2914520502090454,0.3415108919143677,-0.9969053864479065,-0.7610832452774048,-0.9459700584411621,-0.7734504342079163,-0.858965277671814],[-0.13486139476299286,-0.22622931003570557,-0.1711280196905136,-0.17478981614112854,-0.17426277697086334,-0.2904773950576782,0.5764915943145752,0.5186917781829834,0.484014093875885,0.5980454087257385,0.5235803723335266,0.41565126180648804,0.5094900727272034,0.6420508027076721,0.5402931571006775,0.2521653473377228,0.4842331111431122,-0.010943982750177383,0.07889068871736526,0.04124864935874939,0.18168121576309204,0.10351182520389557,-0.7565460801124573,-0.8450538516044617,-0.8690939545631409,-0.8635615706443787,-0.7412353157997131],[-0.9725481867790222,-0.9387940168380737,-0.8429012894630432,-0.9423323273658752,-0.9157824516296387,-0.9062848687171936,0.05959055572748184,0.19116605818271637,0.03247297182679176,-0.034646499902009964,0.18149133026599884,-0.09636875987052917,0.2242468297481537,0.07592521607875824,0.10277103632688522,0.2642165422439575,0.013005711138248444,0.2587950527667999,0.5626013875007629,0.36472904682159424,0.31198835372924805,0.5611638426780701,0.5930795073509216,0.4601821005344391,0.3257047235965729,0.31833651661872864,0.5235996246337891],[0.2656030058860779,0.5187929272651672,0.5214431285858154,0.20666112005710602,0.4359351694583893,0.266135573387146,-0.3124736249446869,-0.45742085576057434,-0.2841533422470093,-0.4722978174686432,-0.25482451915740967,-0.3069435656070709,-0.16080427169799805,-0.35001063346862793,-0.3287246823310852,-0.4311273992061615,-0.39591777324676514,-0.40456005930900574,-0.15161852538585663,-0.10976902395486832,-0.06573817878961563,-0.11926436424255371,0.4264277219772339,0.486370712518692,0.6293717622756958,0.4600399136543274,0.5701090693473816],[0.44151216745376587,0.3216772973537445,0.36943939328193665,0.2527141869068146,0.20510746538639069,0.23827078938484192,-0.4949903190135956,-0.42565295100212097,-0.5528977513313293,-0.5426743030548096,-0.5777202248573303,-0.23870302736759186,-0.3857663869857788,-0.46170371770858765,-0.41092199087142944,-0.14177203178405762,-0.18422241508960724,-0.27907347679138184,-0.29597747325897217,-0.43891552090644836,-0.41818565130233765,-0.3618619441986084,0.8712613582611084,0.9495545029640198,0.678675651550293,0.7826024293899536,0.8272631764411926],[-0.1647178828716278,-0.13223391771316528,-0.0775962844491005,0.02233712375164032,-0.17429262399673462,-0.2082468420267105,0.7775108814239502,0.7116315960884094,0.7213274240493774,0.4818456768989563,0.6404844522476196,0.7930656671524048,0.660184919834137,0.7236902117729187,0.43697044253349304,0.56214439868927,0.567912220954895,-1.120254397392273,-1.0016402006149292,-1.0172992944717407,-0.8814541697502136,-0.9797607660293579,-0.26270604133605957,-0.2734498977661133,-0.25184786319732666,-0.17930802702903748,-0.38499754667282104],[1.0240322351455688,0.8639546632766724,0.8806646466255188,0.9717825055122375,0.9484967589378357,1.0256731510162354,-0.44967731833457947,-0.28525668382644653,-0.16252149641513824,-0.22470413148403168,-0.16267921030521393,-0.20664122700691223,-0.04296183958649635,-0.018435874953866005,-0.19344675540924072,-0.07263697683811188,-0.32506662607192993,0.07268969714641571,-0.005062344949692488,0.14695143699645996,-0.07296941429376602,0.1936451643705368,-0.5666061639785767,-0.7737904787063599,-0.7607038021087646,-0.5413092374801636,-0.6636871695518494],[-0.3792586624622345,-0.29302000999450684,-0.2081405073404312,-0.23270530998706818,-0.07481323182582855,-0.12172774970531464,0.6485640406608582,0.5746324062347412,0.4571390748023987,0.3996272683143616,0.7179688215255737,0.40131905674934387,0.676520049571991,0.389994353055954,0.3752267360687256,0.6280453205108643,0.5728051066398621,-0.4010927677154541,-0.3467535972595215,-0.5992522835731506,-0.546617865562439,-0.4474184811115265,-0.713257908821106,-0.545779824256897,-0.6202408671379089,-0.8063293099403381,-0.6947624683380127],[0.6808962821960449,0.6816667914390564,0.39396411180496216,0.5866870880126953,0.48360878229141235,0.41308024525642395,-0.847019612789154,-0.8162649869918823,-0.810573935508728,-0.8551246523857117,-0.7967118620872498,-0.7323089838027954,-0.5984823107719421,-0.42953363060951233,-0.6936286687850952,-0.5125342011451721,-0.591841995716095,0.822330117225647,0.786245584487915,0.7587771415710449,0.6858415603637695,0.8898868560791016,-0.014914939180016518,-0.0021308106370270252,0.055589620023965836,-0.06119526922702789,-0.11929532885551453],[0.00030836157384328544,-0.0037571804132312536,-0.20588800311088562,-0.2177988737821579,-0.2305208146572113,-0.16739797592163086,0.6252388954162598,0.7573128342628479,0.5348005890846252,0.5976245999336243,0.5561643242835999,0.7247793078422546,0.6283138394355774,0.5662455558776855,0.5673151612281799,0.7629102468490601,0.6730810403823853,-0.6223269701004028,-0.6870304346084595,-0.6101537942886353,-0.5280375480651855,-0.4310462176799774,-0.7062695026397705,-0.792421817779541,-0.7689009308815002,-0.788332462310791,-0.6382836103439331]],"biases":[-0.23098750412464142,-0.03475110977888107,-0.032078906893730164,-0.10782278329133987,-0.1806906759738922,0.09654158353805542,-0.1421183943748474,0.11483819782733917,-0.09687674045562744,-0.18802547454833984,-0.024791011586785316,-0.07935689389705658,0.10644327849149704,-0.1017085537314415,-0.06833215057849884,-0.06110527366399765,-0.19284695386886597,-0.13008248805999756,0.06413179636001587,-0.13607549667358398]},{"weights":[[0.0726003348827362,2.3386359214782715,-0.4593469202518463,-1.0363235473632812,2.456700325012207,-1.79519784450531,-0.8194462656974792,-2.5792553424835205,0.6958324909210205,-1.5701895952224731,-1.6926732063293457,-0.5404269099235535,-2.32190203666687,0.8073581457138062,0.633584201335907,-0.32494303584098816,2.1448416709899902,-0.5456068515777588,1.1919630765914917,-0.3745613098144531],[0.5721926689147949,0.8030515313148499,-0.8688817024230957,-0.010593165643513203,-2.4732182025909424,1.7189717292785645,-0.7139275670051575,-0.6934924125671387,-1.604025959968567,1.580682396888733,2.06622314453125,1.5207536220550537,-0.09151067584753036,-1.5197778940200806,-1.8074783086776733,2.153383731842041,-0.9489523768424988,1.7648906707763672,-2.8802239894866943,2.0747292041778564],[-1.0121322870254517,-2.1085429191589355,0.17559096217155457,2.7350149154663086,-0.04230990260839462,-2.8408870697021484,1.386743187904358,0.9290400743484497,-0.7091889977455139,-0.8924930691719055,0.8264017105102539,0.39476528763771057,0.8745977282524109,-0.5942967534065247,-1.0902576446533203,-2.0570170879364014,0.05917328968644142,-0.7620025277137756,1.5219703912734985,-1.0339350700378418],[-0.0563364140689373,-2.0595810413360596,0.22824767231941223,-1.9926191568374634,-0.3855511546134949,2.231764793395996,-0.24014851450920105,1.74655020236969,1.6747256517410278,0.10244504362344742,-1.8469572067260742,-1.73935866355896,1.074698567390442,0.9229828119277954,1.5813804864883423,-0.5670544505119324,-1.741382360458374,-1.3991492986679077,-0.29342523217201233,-1.5951017141342163]],"biases":[0.08653582632541656,-0.9087107181549072,0.15110960602760315,-0.07034073770046234]}],"inputLookup":{"536":0,"1036":1,"1136":2,"1236":3,"1336":4,"1436":5,"2000":6,"2100":7,"2200":8,"2300":9,"2400":10,"2500":11,"2600":12,"2700":13,"2800":14,"2900":15,"3045":16,"4003":17,"4103":18,"4203":19,"4303":20,"4900":21,"5006":22,"6963":23,"7463":24,"8263":25,"9163":26},"inputLookupLength":27,"outputLookup":{"1233":0,"2004":1,"3151":2,"4845":3},"outputLookupLength":4,"options":{"inputSize":0,"outputSize":0,"binaryThresh":0.5,"hiddenLayers":[20],"activation":"sigmoid","leakyReluAlpha":0.01},"trainOpts":{"activation":"sigmoid","iterations":20000,"errorThresh":0.005,"log":false,"logPeriod":10,"leakyReluAlpha":0.01,"learningRate":0.3,"momentum":0.1,"callbackPeriod":10,"timeout":"Infinity","beta1":0.9,"beta2":0.999,"epsilon":1e-8}}