{"type":"NeuralNetwork","sizes":[27,20,4],"layers":[{"weights":[],"biases":[]},{"weights":[[0.09608189016580582,-0.04962453618645668,-0.20066313445568085,-0.10452932864427567,0.19309772551059723,0.16519562900066376,0.17445741593837738,0.19999854266643524,0.2123270332813263,0.2103545367717743,0.0726800411939621,0.35693269968032837,0.04772859811782837,0.19094981253147125,0.24482764303684235,0.18902556598186493,0.1519814431667328,-0.574383556842804,-0.530903697013855,-0.6935283541679382,-0.5471594333648682,-0.6266780495643616,-0.16535215079784393,-0.18047508597373962,0.015638217329978943,0.048249922692775726,-0.07293465733528137],[1.1235601902008057,1.1540515422821045,0.9847583770751953,0.9015406966209412,0.9782301187515259,0.9207001328468323,0.07027649134397507,-0.06603306531906128,0.026681074872612953,0.09286004304885864,0.033613234758377075,0.009273165836930275,0.20230482518672943,0.1004628986120224,0.02948853187263012,0.21754536032676697,0.13261215388774872,-1.4700534343719482,-1.2900240421295166,-1.2219277620315552,-1.2585768699645996,-1.1487171649932861,-1.0804574489593506,-1.0402836799621582,-1.0716776847839355,-1.0105897188186646,-0.9445965886116028],[-0.11855608224868774,-0.015610864385962486,-0.30125701427459717,-0.163969025015831,-0.18714025616645813,0.062010977417230606,-0.16551297903060913,-0.023250626400113106,-0.03567659854888916,-0.33939212560653687,-0.13499456644058228,-0.08978574723005295,-0.25344356894493103,-0.2830495238304138,-0.17332127690315247,-0.02297867089509964,-0.0193152017891407,0.25366973876953125,0.14145374298095703,0.19558566808700562,0.3585784137248993,0.02097962610423565,0.17990829050540924,0.23961766064167023,0.1210898831486702,0.3709969222545624,0.0812399759888649],[-0.5256788730621338,-0.5363067984580994,-0.4504106938838959,-0.4486212730407715,-0.31941521167755127,-0.2353658676147461,0.11946751922369003,0.11659812927246094,0.20842216908931732,0.31403639912605286,0.22554628551006317,0.07844962179660797,0.1181865781545639,0.06757191568613052,0.16847483813762665,0.21253284811973572,0.1434493511915207,1.3452316522598267,1.305372953414917,1.329323649406433,1.3099219799041748,1.3051306009292603,-1.1038265228271484,-1.0466761589050293,-0.9888671040534973,-0.9545440077781677,-0.8455133438110352],[1.1011176109313965,0.9218800067901611,1.1169919967651367,1.0913714170455933,1.091099500656128,1.0449049472808838,-1.239911675453186,-1.184274435043335,-1.1377955675125122,-0.9869804382324219,-0.9098528623580933,-0.9629453420639038,-0.9772338271141052,-0.9149445295333862,-0.7256773710250854,-0.8278279304504395,-0.7834935784339905,-0.25308555364608765,-0.2699660360813141,-0.27523669600486755,0.006237231194972992,-0.08598724007606506,-0.07386381924152374,-0.24166648089885712,-0.2632608115673065,-0.24546098709106445,-0.1765233725309372],[-0.7753806710243225,-0.8107578158378601,-0.7743198871612549,-0.7588269710540771,-0.7153985500335693,-0.6124719977378845,0.8870038390159607,0.7261573076248169,0.8596641421318054,0.826590895652771,0.7926604747772217,0.8117560744285583,0.7312485575675964,0.8641610145568848,0.8288353085517883,0.7100017070770264,0.5828999280929565,-1.2507504224777222,-1.366097331047058,-1.2817974090576172,-1.1668826341629028,-1.1724061965942383,1.2303375005722046,1.1071629524230957,1.131413221359253,1.0728507041931152,1.1304701566696167],[-0.38961222767829895,-0.2724657952785492,-0.4362245500087738,-0.16944921016693115,-0.43020549416542053,-0.08718223124742508,0.003625815501436591,-0.08609644323587418,0.05636082962155342,-0.24510447680950165,-0.09180834889411926,-0.06346333026885986,-0.17510591447353363,-0.07473734021186829,-0.2063610702753067,0.11320807784795761,0.0803937166929245,0.8630598783493042,0.8317897915840149,0.6435069441795349,0.922590970993042,0.6973490715026855,-0.1366696059703827,-0.2107176035642624,-0.09981054812669754,-0.027166826650500298,0.09973786771297455],[-0.9651570320129395,-1.1190639734268188,-1.068223476409912,-0.9788389205932617,-0.9892370700836182,-1.028350830078125,0.17151379585266113,0.18187524378299713,0.06388401240110397,0.23891383409500122,0.1736973375082016,0.2516638934612274,0.22710472345352173,0.03398914262652397,-0.09158514440059662,-0.04025812819600105,0.042354509234428406,0.744378387928009,0.801645040512085,0.8083919882774353,0.7107363343238831,0.6601872444152832,1.1183416843414307,1.0013084411621094,0.8608714938163757,0.9866522550582886,0.7627871036529541],[0.21189841628074646,0.09298150986433029,0.3983690142631531,0.10864609479904175,0.32282787561416626,0.4599289894104004,-0.6527610421180725,-0.5859516263008118,-0.693865954875946,-0.6048659086227417,-0.6979241967201233,-0.5749644637107849,-0.3596431314945221,-0.6176218390464783,-0.5105785727500916,-0.5954363346099854,-0.4213034510612488,-0.5346463322639465,-0.5795938968658447,-0.36319878697395325,-0.3579728603363037,-0.20747077465057373,0.7413613796234131,0.8835117220878601,0.8853185772895813,0.704998254776001,0.8867366909980774],[-0.46998298168182373,-0.5883398056030273,-0.7340703010559082,-0.626193642616272,-0.5876492261886597,-0.6766742467880249,0.8746635913848877,0.8940758109092712,0.9532092213630676,0.6907515525817871,0.6492074728012085,0.6396332383155823,0.7491519451141357,0.807910680770874,0.760051429271698,0.697559654712677,0.5310242772102356,-0.24770686030387878,-0.4369647204875946,-0.2996474802494049,-0.527083694934845,-0.2997097074985504,0.1949472725391388,0.07037612050771713,0.16408251225948334,0.013389121741056442,0.12367671728134155],[-0.7106738090515137,-0.6161893606185913,-0.5384748578071594,-0.7753214836120605,-0.581896960735321,-0.505496084690094,0.9933608174324036,1.102741003036499,0.9862067103385925,1.0707215070724487,0.9346020817756653,1.048520803451538,0.9938357472419739,0.7320683598518372,0.8471428155899048,0.8099915385246277,0.8643918633460999,0.6389046311378479,0.3697061538696289,0.5488813519477844,0.5041318535804749,0.5390854477882385,-0.9719094634056091,-0.7470108270645142,-0.9290890097618103,-0.7814416885375977,-0.8689291477203369],[-0.13523447513580322,-0.22609089314937592,-0.17087246477603912,-0.17465940117835999,-0.1741192638874054,-0.29034218192100525,0.6967338919639587,0.6351038217544556,0.6078557372093201,0.709972620010376,0.6355680823326111,0.5315243005752563,0.6226969957351685,0.7461620569229126,0.6370192170143127,0.3543574810028076,0.5735067129135132,0.08593200147151947,0.16961146891117096,0.12693795561790466,0.2601204216480255,0.17795823514461517,-0.8010294437408447,-0.8879374265670776,-0.9079541563987732,-0.9153975248336792,-0.7900352478027344],[-0.976484477519989,-0.9390348792076111,-0.8431944847106934,-0.9426353573799133,-0.916035532951355,-0.9065927863121033,0.3313658833503723,0.4413061738014221,0.2962862253189087,0.21172644197940826,0.39420628547668457,0.10842227190732956,0.41241857409477234,0.26509323716163635,0.2495446503162384,0.3908214867115021,0.12128318846225739,0.5768772959709167,0.8361497521400452,0.6301944255828857,0.553284764289856,0.7749949097633362,0.8048433065414429,0.6446595788002014,0.514747679233551,0.4842343330383301,0.6581164598464966],[0.2675875425338745,0.5188788175582886,0.5214738249778748,0.20681217312812805,0.43602874875068665,0.2662770748138428,-0.5476540327072144,-0.668545663356781,-0.5066035985946655,-0.66642826795578,-0.44048216938972473,-0.4874363839626312,-0.33603134751319885,-0.5112464427947998,-0.46803945302963257,-0.5633381009101868,-0.5138829350471497,-0.5752922892570496,-0.31284576654434204,-0.258238822221756,-0.19912104308605194,-0.24224212765693665,0.3958941102027893,0.46773335337638855,0.6103797554969788,0.4571716785430908,0.5706349611282349],[0.44358253479003906,0.3218111991882324,0.36947014927864075,0.252946138381958,0.20525211095809937,0.23849080502986908,-0.7220407724380493,-0.6380901336669922,-0.7638928294181824,-0.7333148717880249,-0.7541415095329285,-0.4237591624259949,-0.5600857138633728,-0.6228699088096619,-0.5535398125648499,-0.28706997632980347,-0.3130814731121063,-0.47442471981048584,-0.4745037853717804,-0.5990668535232544,-0.5644288063049316,-0.5007545351982117,0.8829731941223145,0.9668753743171692,0.6957618594169617,0.8157262206077576,0.8582606911659241],[-0.16225333511829376,-0.13161185383796692,-0.07695461809635162,0.023179609328508377,-0.1736556887626648,-0.2074323147535324,0.8823465704917908,0.8166678547859192,0.8310562372207642,0.5893943309783936,0.7475984692573547,0.897049605846405,0.7713682651519775,0.8246338367462158,0.5406831502914429,0.6680113673210144,0.6646844148635864,-1.1912730932235718,-1.0753103494644165,-1.0870082378387451,-0.9539809823036194,-1.04949152469635,-0.2699306607246399,-0.2821345925331116,-0.2586227357387543,-0.1929018348455429,-0.39687126874923706],[1.0277305841445923,0.8641549348831177,0.8809468150138855,0.9719915390014648,0.9486978054046631,1.0258787870407104,-0.8228296637535095,-0.6339153051376343,-0.5251867771148682,-0.5553237199783325,-0.45492514967918396,-0.4890696704387665,-0.3060744106769562,-0.2733895778656006,-0.39904072880744934,-0.26153451204299927,-0.48570922017097473,-0.21438592672348022,-0.2596356272697449,-0.08440561592578888,-0.2757750153541565,0.010051908902823925,-0.8196343183517456,-0.9737632274627686,-0.9580813646316528,-0.7344937324523926,-0.8211116194725037],[-0.3782598078250885,-0.2926414906978607,-0.20767444372177124,-0.23222805559635162,-0.07440654188394547,-0.12123961001634598,0.7719554901123047,0.6956493854522705,0.5870627164840698,0.5204031467437744,0.8302549719810486,0.5230316519737244,0.7914212942123413,0.504723846912384,0.48052600026130676,0.7304137349128723,0.6669455170631409,-0.38976675271987915,-0.33840006589889526,-0.5926490426063538,-0.5432138442993164,-0.4469200074672699,-0.7466201782226562,-0.5816857218742371,-0.6519386172294617,-0.8464396595954895,-0.7323800921440125],[0.6816439032554626,0.6814576387405396,0.3937610685825348,0.5863688588142395,0.4833765923976898,0.4127427339553833,-1.1853206157684326,-1.1325039863586426,-1.1337988376617432,-1.1437498331069946,-1.0711536407470703,-1.0065653324127197,-0.8706905841827393,-0.6921378970146179,-0.9129579663276672,-0.7362169027328491,-0.7883504629135132,0.7475771903991699,0.7254919409751892,0.7066584229469299,0.6453917026519775,0.8623606562614441,-0.15210075676441193,-0.11458251625299454,-0.05496957153081894,-0.15540726482868195,-0.19769863784313202],[0.0020330168772488832,-0.0032647154293954372,-0.2053205519914627,-0.21720068156719208,-0.23003080487251282,-0.166794091463089,0.7439917325973511,0.8687374591827393,0.6584419012069702,0.7095465064048767,0.6718595027923584,0.8376076817512512,0.7460001111030579,0.6774682402610779,0.6718069314956665,0.8660756349563599,0.7699140310287476,-0.6418402791023254,-0.7068687677383423,-0.6300431489944458,-0.5496717691421509,-0.45518067479133606,-0.7576014995574951,-0.8399711847305298,-0.8136285543441772,-0.8426951169967651,-0.6894057989120483]],"biases":[-0.18882112205028534,0.39481815695762634,-0.03713091462850571,-0.31340643763542175,0.10823049396276474,-0.25342676043510437,-0.21926741302013397,-0.17101460695266724,0.006959050893783569,-0.2723291218280792,-0.23266880214214325,-0.10740011185407639,-0.08395448327064514,0.007546430453658104,0.05249471589922905,-0.07798059284687042,0.04587117210030556,-0.16662023961544037,0.29042306542396545,-0.1634998619556427]},{"weights":[[0.16778039932250977,2.851196765899658,-0.3945024907588959,-1.372151255607605,3.2778940200805664,-2.1547296047210693,-0.9566662311553955,-2.9531021118164062,1.1916135549545288,-2.004326343536377,-2.4182958602905273,-0.911278247833252,-2.7654221057891846,1.2579439878463745,1.1787687540054321,-0.49013301730155945,2.6878490447998047,-0.7305895090103149,1.7867430448532104,-0.5851162672042847],[0.5588549971580505,0.7753896117210388,-1.0426926612854004,-0.07201269268989563,-2.9303269386291504,1.9032350778579712,-0.860406219959259,-0.8178091049194336,-1.936749815940857,1.7692056894302368,2.3214762210845947,1.6627298593521118,-0.13503307104110718,-1.8241627216339111,-2.1414825916290283,2.359905242919922,-1.200434684753418,1.9307657480239868,-3.380737066268921,2.2854526042938232],[-1.2300313711166382,-2.5224223136901855,0.1497543901205063,3.014029026031494,-0.1807565540075302,-3.1898996829986572,1.5276079177856445,1.0519486665725708,-0.9096285104751587,-1.0356253385543823,0.9117471575737,0.3784516751766205,0.9822494387626648,-0.7682141661643982,-1.319995403289795,-2.3830294609069824,-0.06596916168928146,-0.9371963739395142,1.5988242626190186,-1.243559718132019],[-0.14075948297977448,-2.4052023887634277,0.20330464839935303,-2.252439022064209,-0.5514387488365173,2.441829204559326,-0.31913602352142334,1.923356056213379,1.7653625011444092,0.08970893174409866,-2.066920757293701,-1.9849796295166016,1.1771303415298462,0.9433510303497314,1.6745250225067139,-0.6922770738601685,-2.048189878463745,-1.6125352382659912,-0.43370383977890015,-1.8257471323013306]],"biases":[0.19100163877010345,-1.1211186647415161,0.014876141212880611,-0.20215222239494324]}],"inputLookup":{"536":0,"1036":1,"1136":2,"1236":3,"1336":4,"1436":5,"2000":6,"2100":7,"2200":8,"2300":9,"2400":10,"2500":11,"2600":12,"2700":13,"2800":14,"2900":15,"3045":16,"4003":17,"4103":18,"4203":19,"4303":20,"4900":21,"5006":22,"6963":23,"7463":24,"8263":25,"9163":26},"inputLookupLength":27,"outputLookup":{"1233":0,"2004":1,"3151":2,"4845":3},"outputLookupLength":4,"options":{"inputSize":0,"outputSize":0,"binaryThresh":0.5,"hiddenLayers":[20],"activation":"sigmoid","leakyReluAlpha":0.01},"trainOpts":{"activation":"sigmoid","iterations":20000,"errorThresh":0.005,"log":false,"logPeriod":10,"leakyReluAlpha":0.01,"learningRate":0.3,"momentum":0.1,"callbackPeriod":10,"timeout":"Infinity","beta1":0.9,"beta2":0.999,"epsilon":1e-8}}