{"type":"NeuralNetwork","sizes":[27,20,4],"layers":[{"weights":[],"biases":[]},{"weights":[[-0.7716942429542542,-0.25884997844696045,-0.41064074635505676,-0.3041868805885315,-0.06081258878111839,-0.07926488667726517,0.7920424938201904,0.8089838624000549,0.8099946975708008,0.8287439942359924,0.6345400214195251,0.9680748581886292,0.5790464282035828,0.3909528851509094,0.4945903718471527,0.39987677335739136,0.3654128909111023,-0.9725556373596191,-0.9340994358062744,-1.0836695432662964,-0.9615147113800049,-1.0390989780426025,-0.26312002539634705,-0.2750392556190491,-0.10089488327503204,-0.05089182034134865,-0.17371124029159546],[-1.1812156438827515,0.601611852645874,0.38907837867736816,0.35270869731903076,0.3909173309803009,0.4009419083595276,1.2479395866394043,1.1490904092788696,1.1499803066253662,1.2150287628173828,1.1509953737258911,1.0660126209259033,1.193852186203003,0.34107422828674316,0.32415851950645447,0.5162633061408997,0.4222194254398346,-2.3498342037200928,-2.24039888381958,-2.255641460418701,-2.2587597370147705,-2.2428972721099854,-2.079432725906372,-2.0735411643981934,-2.146237373352051,-2.115485429763794,-2.0735888481140137],[1.6779056787490845,0.4151451885700226,0.0700179934501648,0.2141832709312439,0.21120473742485046,0.520060122013092,-0.7239160537719727,-0.5949110984802246,-0.6135677695274353,-0.8433993458747864,-0.6885384917259216,-0.6428022384643555,-0.7589004635810852,-0.32797160744667053,-0.22652804851531982,-0.0768677145242691,-0.07743366062641144,0.11343150585889816,0.0027755657210946083,0.07200493663549423,0.15850763022899628,0.02018154412508011,0.19547079503536224,0.2460418939590454,0.15927474200725555,0.36498841643333435,0.11244145035743713],[-0.6429680585861206,0.2427472025156021,0.4804615080356598,0.34973597526550293,0.6103832721710205,0.7435671091079712,-1.3092464208602905,-1.1719815731048584,-1.1096445322036743,-1.081763505935669,-1.0751234292984009,-1.1320381164550781,-1.0966938734054565,-0.34178757667541504,-0.3274227976799011,-0.26267167925834656,-0.298535019159317,6.755880832672119,6.7455573081970215,6.733388423919678,6.850634574890137,4.784880638122559,-1.418652057647705,-1.3664318323135376,-1.3203274011611938,-1.321925401687622,-1.2412517070770264],[1.6366400718688965,0.5629894733428955,0.6786841154098511,0.7128804922103882,0.716937780380249,0.6731554269790649,-1.6323426961898804,-1.539639949798584,-1.5308829545974731,-1.4307584762573242,-1.3990641832351685,-1.46812903881073,-1.5017530918121338,-0.8606671094894409,-0.6482170820236206,-0.77506422996521,-0.7285408973693848,-0.7629063129425049,-0.7988922595977783,-0.7875252366065979,-0.6547699570655823,-0.6563445925712585,-0.7120323181152344,-0.8495081663131714,-0.8707011342048645,-0.8733073472976685,-0.8326315879821777],[-1.4574964046478271,-0.5023895502090454,-0.4691820740699768,-0.45332372188568115,-0.4126284718513489,-0.27394160628318787,1.0329512357711792,0.8507981896400452,0.575722336769104,0.5653746724128723,0.7355319857597351,0.5315366983413696,0.6613866090774536,1.380239725112915,1.354825735092163,1.3547182083129883,1.2262779474258423,-1.5255675315856934,-1.6460351943969727,-1.6035866737365723,-1.4528069496154785,-1.5800080299377441,6.359649658203125,6.348128318786621,6.337690830230713,6.321932792663574,6.36970329284668],[1.6363593339920044,0.42906153202056885,0.21823839843273163,0.5716786980628967,0.18528129160404205,0.7245658040046692,-0.8618369698524475,-0.8705779314041138,-0.7894467711448669,-0.9746792912483215,-0.8656373620033264,-0.8357526659965515,-0.8927798271179199,-0.23739755153656006,-0.3740078806877136,-0.08292283117771149,-0.11020990461111069,2.1208348274230957,2.095031499862671,1.9697314500808716,2.113720655441284,1.7334802150726318,-0.14439000189304352,-0.20653176307678223,-0.0869636982679367,-0.04875405505299568,0.07294297963380814],[2.0797078609466553,0.3982482850551605,0.886346161365509,0.8962467908859253,0.9868443012237549,0.7418193817138672,-1.464665174484253,-1.403140664100647,-1.4765344858169556,-1.438502550125122,-1.398992896080017,-1.3779634237289429,-1.3538918495178223,-0.2158716768026352,-0.3394426703453064,-0.23776209354400635,-0.16676536202430725,4.77502965927124,4.678814888000488,4.741158485412598,4.843113899230957,4.192779541015625,4.827434062957764,4.850222587585449,4.875058174133301,4.911530494689941,4.794168949127197],[2.2341103553771973,0.5601383447647095,1.0122737884521484,0.5896550416946411,0.9125233888626099,1.097015380859375,-1.2662502527236938,-1.1751104593276978,-1.2639297246932983,-1.2178336381912231,-1.2868025302886963,-1.2045401334762573,-1.0593483448028564,-0.6444759964942932,-0.5412726998329163,-0.623547375202179,-0.4547540843486786,-0.6909103393554688,-0.7807005047798157,-0.6001861691474915,-0.5420390367507935,-0.6033549904823303,1.1612120866775513,1.2601195573806763,1.315430760383606,1.154139757156372,1.3383138179779053],[-1.3709790706634521,-0.7385699152946472,-0.8835132122039795,-0.7763902544975281,-0.7516666054725647,-0.8315776586532593,2.3550124168395996,2.31503963470459,2.4077322483062744,2.1047542095184326,2.04268217086792,2.011186122894287,2.2035369873046875,1.3834059238433838,1.3791835308074951,1.2220109701156616,1.0031436681747437,0.02001017890870571,-0.20943564176559448,-0.06590329110622406,-0.3042258024215698,-0.2394195795059204,1.0971938371658325,0.9657901525497437,1.1127132177352905,0.885653555393219,1.0838209390640259],[-1.8136789798736572,-0.6997426748275757,-0.6660151481628418,-0.867946207523346,-0.7100756764411926,-0.6549507975578308,-0.21260380744934082,0.04845935106277466,0.16124212741851807,0.18034504354000092,0.1883801519870758,0.1819935292005539,0.19728800654411316,0.7529681921005249,0.8371115922927856,0.7874240279197693,0.894440770149231,9.234549522399902,9.214798927307129,9.220780372619629,9.47231388092041,7.2666192054748535,-1.186793565750122,-0.9318773150444031,-1.1373348236083984,-1.008794903755188,-1.0939664840698242],[-1.3094667196273804,-0.4642232060432434,-0.4420228600502014,-0.4271289110183716,-0.44006648659706116,-0.5336843729019165,1.8228065967559814,1.7940785884857178,1.7961876392364502,1.9114654064178467,1.8485636711120605,1.7154171466827393,1.82180917263031,1.1560978889465332,1.053074836730957,0.652263879776001,0.9538059830665588,0.8277595639228821,1.115706205368042,0.9747201800346375,1.1911274194717407,0.9501433968544006,-1.1924179792404175,-1.253587245941162,-1.297590970993042,-1.3199435472488403,-1.2118738889694214],[0.39720651507377625,0.0717131495475769,0.45861274003982544,0.022221483290195465,0.12885358929634094,0.12787112593650818,-1.0642924308776855,-0.9701467156410217,-1.0644986629486084,-1.1067601442337036,-0.9799487590789795,-1.0909308195114136,-0.946542501449585,0.0016316273249685764,-0.03609234094619751,0.14929085969924927,-0.07468768209218979,4.037585735321045,4.218423843383789,4.073330879211426,4.127110958099365,3.9501779079437256,3.1376190185546875,3.068028211593628,3.0069069862365723,2.915712356567383,3.2136309146881104],[1.7551543712615967,0.7781680226325989,0.798771858215332,0.4441468119621277,0.7233618497848511,0.5205212235450745,-1.076633095741272,-1.1247988939285278,-1.0126285552978516,-1.14949369430542,-0.988145649433136,-1.0276670455932617,-0.9183789491653442,-0.5048011541366577,-0.45635145902633667,-0.5585638880729675,-0.5094743967056274,-0.8705980777740479,-0.717914879322052,-0.6709048748016357,-0.6350744962692261,-0.6577188372612,0.3493628203868866,0.37407776713371277,0.5086345076560974,0.3912171423435211,0.48362448811531067],[3.642852783203125,0.8452755808830261,0.9434569478034973,0.7716701030731201,0.7447530627250671,0.771338701248169,-1.3463385105133057,-1.2427576780319214,-1.3455246686935425,-1.339445948600769,-1.3602855205535889,-1.1338212490081787,-1.2305232286453247,-0.635654628276825,-0.5670262575149536,-0.3093482255935669,-0.3351791501045227,-0.6735752820968628,-0.73636394739151,-0.8400835990905762,-0.743855893611908,-0.9333697557449341,1.2534409761428833,1.2846691608428955,1.0680924654006958,1.201309323310852,1.2479699850082397],[-2.1442348957061768,-0.6611550450325012,-0.6630899310112,-0.5632331371307373,-0.7057307362556458,-0.7231809496879578,8.76562213897705,8.42130184173584,8.310257911682129,8.294151306152344,8.27441692352295,8.309060096740723,8.27462100982666,6.192395210266113,5.5612969398498535,5.461536407470703,5.600686550140381,-1.3760980367660522,-1.2229139804840088,-1.2979538440704346,-1.0239068269729614,-1.5347265005111694,-0.2654355764389038,-0.2392037808895111,-0.2739388644695282,-0.1450870931148529,-0.40935009717941284],[0.24582751095294952,0.5478730797767639,0.5546940565109253,0.6886176466941833,0.6390396952629089,0.758112907409668,-0.7280473709106445,-0.4930746257305145,-0.4074256718158722,-0.4607940912246704,-0.37934327125549316,-0.4704970717430115,-0.28553885221481323,-0.23724175989627838,-0.3527226150035858,-0.21859878301620483,-0.4451683759689331,-0.6471640467643738,-0.6734917759895325,-0.5480253100395203,-0.710477352142334,-0.4581737518310547,-1.5608611106872559,-1.6802356243133545,-1.6943050622940063,-1.5818581581115723,-1.6280622482299805],[-1.8897191286087036,-0.7040240168571472,-0.6766770482063293,-0.6621922850608826,-0.5724459290504456,-0.6016283631324768,5.1427435874938965,4.689713478088379,5.003005027770996,4.98370885848999,5.134653091430664,4.930762767791748,5.098752975463867,1.5465742349624634,1.661755084991455,1.979128360748291,1.89301335811615,-0.057412151247262955,0.15561117231845856,-0.38550007343292236,-0.14039582014083862,-0.5310407876968384,-1.0751616954803467,-0.9074932336807251,-1.013680338859558,-1.1868258714675903,-1.0845836400985718],[10.02080249786377,6.922857761383057,6.855708599090576,6.886874675750732,6.854899883270264,6.855018615722656,-1.8488210439682007,-1.7923558950424194,-1.8385019302368164,-1.866186499595642,-1.8250610828399658,-1.7974233627319336,-1.716022253036499,-0.7238367795944214,-0.9434518814086914,-0.7556721568107605,-0.80805504322052,-0.27481314539909363,-0.284895658493042,-0.24694854021072388,-0.4470753073692322,0.5344337821006775,-0.35287079215049744,-0.35845255851745605,-0.30815353989601135,-0.4091194272041321,-0.4358288645744324],[-2.0802948474884033,-0.6018255949020386,-0.7619681358337402,-0.7347275018692017,-0.7604082226753235,-0.7187150716781616,9.016199111938477,8.686001777648926,8.564685821533203,8.575035095214844,8.5394868850708,8.570752143859863,8.545234680175781,6.319338321685791,6.782154083251953,6.834807872772217,6.669130802154541,-0.060420818626880646,-0.07969216257333755,-0.05118480324745178,0.7711905837059021,-0.575512707233429,-1.1503634452819824,-1.207419753074646,-1.2283316850662231,-1.2530817985534668,-1.1181812286376953]],"biases":[-5.647932052612305,-6.382824897766113,-5.088083267211914,-7.439828395843506,-5.654664993286133,-4.608731269836426,-5.802916049957275,-5.144632339477539,-6.01636266708374,-6.04657506942749,-6.402277946472168,-6.3665547370910645,-5.612884998321533,-5.710177421569824,-5.813681602478027,-5.753479480743408,-5.087559700012207,-5.841115951538086,-5.944118499755859,-5.76461124420166]},{"weights":[[0.5271034240722656,-4.684187889099121,-0.17539003491401672,3.4750218391418457,-1.8906346559524536,-4.5135087966918945,1.7664828300476074,-4.650075912475586,-2.2113802433013916,-2.3560056686401367,-2.3221030235290527,-0.022725023329257965,-2.9396774768829346,-2.256214141845703,-1.6072152853012085,-20.541187286376953,-1.223555564880371,-5.970761775970459,5.377757549285889,-22.731590270996094],[-1.929383397102356,-3.9299428462982178,0.5876413583755493,-13.351164817810059,1.5383005142211914,-6.108621597290039,0.8488362431526184,-4.866405010223389,0.8447495698928833,-1.4362925291061401,-18.279617309570312,-1.0938912630081177,-3.8222737312316895,0.918476402759552,1.494093656539917,3.0618538856506348,-1.185736060142517,1.0785902738571167,-2.4728188514709473,3.532188892364502],[-1.5303598642349243,1.3996788263320923,-0.38858720660209656,3.9032747745513916,0.209150031208992,-4.931004047393799,-2.219564437866211,-4.6666951179504395,-1.0972201824188232,0.21273204684257507,8.703985214233398,0.3911556303501129,-3.8532910346984863,-0.35040083527565,-2.9510865211486816,-0.8672475814819336,0.22548191249370575,1.1595354080200195,-15.202080726623535,-1.6910009384155273],[-0.8216159343719482,-6.051351070404053,-0.30123719573020935,-4.233695983886719,-2.4892578125,11.046106338500977,-1.2771328687667847,6.751491069793701,2.3659801483154297,0.6948601603507996,-3.0897459983825684,-3.4238650798797607,3.897754669189453,0.6381558179855347,2.110335350036621,-1.0900261402130127,-4.85986328125,-2.7169699668884277,-2.2002129554748535,-2.9705841541290283]],"biases":[-1.6022237539291382,-1.1503716707229614,0.7580149173736572,-7.107325077056885]}],"inputLookup":{"536":0,"1036":1,"1136":2,"1236":3,"1336":4,"1436":5,"2000":6,"2100":7,"2200":8,"2300":9,"2400":10,"2500":11,"2600":12,"2700":13,"2800":14,"2900":15,"3045":16,"4003":17,"4103":18,"4203":19,"4303":20,"4900":21,"5006":22,"6963":23,"7463":24,"8263":25,"9163":26},"inputLookupLength":27,"outputLookup":{"1233":0,"2004":1,"3151":2,"4845":3},"outputLookupLength":4,"options":{"inputSize":0,"outputSize":0,"binaryThresh":0.5,"hiddenLayers":[20],"activation":"sigmoid","leakyReluAlpha":0.01},"trainOpts":{"activation":"sigmoid","iterations":20000,"errorThresh":0.005,"log":false,"logPeriod":10,"leakyReluAlpha":0.01,"learningRate":0.3,"momentum":0.1,"callbackPeriod":10,"timeout":"Infinity","beta1":0.9,"beta2":0.999,"epsilon":1e-8}}