{"type":"NeuralNetwork","sizes":[27,20,4],"layers":[{"weights":[],"biases":[]},{"weights":[[-0.8187194466590881,-0.2960621118545532,-0.44233834743499756,-0.3402235507965088,-0.10619509965181351,-0.12518736720085144,0.8286043405532837,0.8195837736129761,0.8564057946205139,0.8737466931343079,0.6629869937896729,1.0245648622512817,0.6096077561378479,0.361527681350708,0.44736263155937195,0.3546586036682129,0.3209580183029175,-0.9813956022262573,-0.9418805241584778,-1.091179609298706,-0.9734917283058167,-1.0542598962783813,-0.27077555656433105,-0.28232133388519287,-0.10921631008386612,-0.059325192123651505,-0.18145206570625305],[-1.1860742568969727,0.5142267942428589,0.3153746426105499,0.2797033488750458,0.3139854669570923,0.31770873069763184,1.3072693347930908,1.1491835117340088,1.2116459608078003,1.2712290287017822,1.192604660987854,1.1177176237106323,1.2433054447174072,0.28847140073776245,0.23907135426998138,0.41105255484580994,0.33175668120384216,-2.345395088195801,-2.2348570823669434,-2.251755714416504,-2.2522354125976562,-2.252824306488037,-2.082000732421875,-2.0760529041290283,-2.1488726139068604,-2.118121862411499,-2.0759599208831787],[1.4711158275604248,0.40846094489097595,0.06481056660413742,0.20814187824726105,0.20494814217090607,0.5111737847328186,-0.7379205226898193,-0.6077476739883423,-0.6245449185371399,-0.8519973158836365,-0.6982371211051941,-0.6535196304321289,-0.7677987813949585,-0.3310435712337494,-0.23178280889987946,-0.08322179317474365,-0.08302780985832214,0.23610132932662964,0.10849416255950928,0.1814492791891098,0.32049691677093506,0.03661428391933441,0.19401700794696808,0.24457904696464539,0.1579509675502777,0.36335137486457825,0.11123597621917725],[0.46712303161621094,0.22370848059654236,0.5004315376281738,0.35646548867225647,0.6511412858963013,0.8309330940246582,-0.6834052801132202,-0.6646811962127686,-0.6270977854728699,-0.5874377489089966,-0.594568133354187,-0.6646098494529724,-0.634423553943634,-0.22195595502853394,-0.17470768094062805,-0.09128569066524506,-0.15069273114204407,5.091989040374756,5.083233833312988,5.107961177825928,5.089662075042725,5.094620704650879,-1.3261960744857788,-1.273313045501709,-1.2320973873138428,-1.239223837852478,-1.1451770067214966],[1.4575445652008057,0.5491605401039124,0.662498950958252,0.6938636898994446,0.6982962489128113,0.6529080867767334,-1.6129000186920166,-1.5227763652801514,-1.5208925008773804,-1.419634222984314,-1.386223316192627,-1.458498239517212,-1.4905868768692017,-0.8507035970687866,-0.6372526288032532,-0.7646125555038452,-0.7174621820449829,-0.7518450021743774,-0.7887043952941895,-0.7788236141204834,-0.6417251229286194,-0.6710897088050842,-0.7130420207977295,-0.8503803610801697,-0.8715653419494629,-0.8741483688354492,-0.8332879543304443],[-1.433518886566162,-0.6919525265693665,-0.6581296920776367,-0.6502201557159424,-0.6129916310310364,-0.5033236742019653,0.8197663426399231,0.6966864466667175,0.7881925702095032,0.7496144771575928,0.8010801672935486,0.8003385066986084,0.758195698261261,0.5826594829559326,0.5179678797721863,0.501332700252533,0.39971619844436646,-1.613811731338501,-1.721097707748413,-1.6790140867233276,-1.580254316329956,-1.6216598749160767,5.493345260620117,5.505431652069092,5.5137529373168945,5.523941516876221,5.5219597816467285],[1.4857546091079712,0.4331364929676056,0.2257998138666153,0.5818614959716797,0.19447259604930878,0.7460715174674988,-0.7896468043327332,-0.8145164847373962,-0.7373998761177063,-0.9315528273582458,-0.8191699385643005,-0.7857744693756104,-0.8478341698646545,-0.22094754874706268,-0.3506026864051819,-0.0499570369720459,-0.0833023190498352,2.202040195465088,2.1249401569366455,1.951135516166687,2.3269662857055664,2.0752158164978027,-0.1264856606721878,-0.19031618535518646,-0.0692419707775116,-0.030983170494437218,0.09400638937950134],[3.404592275619507,0.18196812272071838,0.5903506875038147,0.5850299596786499,0.6676451563835144,0.4821677505970001,-1.3488893508911133,-1.30474853515625,-1.3636287450790405,-1.3249742984771729,-1.2990942001342773,-1.246932029724121,-1.2455600500106812,-0.3273416757583618,-0.45092856884002686,-0.36414098739624023,-0.3124118149280548,3.6082603931427,3.4543936252593994,3.6138927936553955,3.594188690185547,3.3984076976776123,4.4734344482421875,4.49462366104126,4.519207000732422,4.561891078948975,4.412929534912109],[2.2692952156066895,0.4925388991832733,0.9125922322273254,0.5168113112449646,0.8176414966583252,0.98026043176651,-1.2250657081604004,-1.1402783393859863,-1.2382382154464722,-1.1912827491760254,-1.2622014284133911,-1.177837610244751,-1.0288742780685425,-0.6440014839172363,-0.5419842600822449,-0.6234881281852722,-0.45709750056266785,-0.8477323651313782,-0.9196973443031311,-0.7578664422035217,-0.7654860019683838,-0.6613484025001526,1.0866234302520752,1.181606650352478,1.2345223426818848,1.0865715742111206,1.2538896799087524],[-1.3499614000320435,-0.7455171346664429,-0.8892444372177124,-0.7831935286521912,-0.7586348056793213,-0.838053822517395,2.4000000953674316,2.311415910720825,2.495419502258301,2.1442198753356934,2.0620181560516357,2.0555343627929688,2.2446787357330322,1.3402637243270874,1.3233768939971924,1.1703808307647705,0.9596606492996216,-0.23467053472995758,-0.41110044717788696,-0.2929138243198395,-0.5364207625389099,-0.308439165353775,1.0795040130615234,0.9505100846290588,1.0959022045135498,0.8724217414855957,1.0670979022979736],[-1.6981335878372192,-0.7521118521690369,-0.7091160416603088,-0.9059411883354187,-0.748202383518219,-0.6900743246078491,2.4843201637268066,2.5150539875030518,2.444652795791626,2.5519914627075195,2.455103874206543,2.551780939102173,2.4958295822143555,1.2124710083007812,1.4154773950576782,1.3560385704040527,1.4894648790359497,4.634357929229736,4.5639967918396,4.617392539978027,4.6010212898254395,4.592465877532959,-1.1329046487808228,-0.8645015358924866,-1.0854425430297852,-0.9521880149841309,-1.0384113788604736],[-1.2976356744766235,-0.4661131203174591,-0.4432308077812195,-0.4283241331577301,-0.4409327805042267,-0.5337639451026917,2.008481740951538,1.8343615531921387,1.8527222871780396,2.032418966293335,1.9138128757476807,1.759242296218872,1.8822331428527832,1.143029808998108,1.0388271808624268,0.6324928402900696,0.9345796704292297,0.7286027669906616,1.0286599397659302,0.8732652068138123,1.1107088327407837,0.9545009136199951,-1.1893266439437866,-1.2507964372634888,-1.2950445413589478,-1.3175657987594604,-1.2089173793792725],[0.6294947862625122,-0.026802847161889076,0.3375014662742615,-0.06294846534729004,0.04192138835787773,0.04318753257393837,-0.9502089619636536,-0.8712044358253479,-0.9457089304924011,-0.9971463084220886,-0.8756954669952393,-0.969550371170044,-0.8341374397277832,-0.10490318387746811,-0.1526816338300705,0.005987086333334446,-0.19918587803840637,3.163006544113159,3.4837725162506104,3.223940849304199,3.195794105529785,3.4866762161254883,3.2721164226531982,3.1952011585235596,3.129537343978882,3.034212589263916,3.315626382827759],[1.6397112607955933,0.7237673401832581,0.744168221950531,0.40207698941230774,0.6700423955917358,0.47388070821762085,-1.0345982313156128,-1.0940661430358887,-0.9872028231620789,-1.1275477409362793,-0.9617742300033569,-1.0037204027175903,-0.8906044960021973,-0.5019556283950806,-0.4565797448158264,-0.5579089522361755,-0.5097949504852295,-0.8824635148048401,-0.7309185862541199,-0.685019314289093,-0.657202422618866,-0.6833546757698059,0.3293617367744446,0.35438621044158936,0.4869205355644226,0.3723600208759308,0.46191027760505676],[2.578702926635742,0.6959149837493896,0.7786492109298706,0.6260080337524414,0.6017842888832092,0.6204785108566284,-1.313720464706421,-1.2152503728866577,-1.3251110315322876,-1.319156289100647,-1.3403968811035156,-1.1087262630462646,-1.2082316875457764,-0.6295300722122192,-0.5606899857521057,-0.2996152937412262,-0.32781872153282166,-0.9177648425102234,-0.9620518088340759,-1.0390336513519287,-1.0285829305648804,-0.9887447953224182,1.140610694885254,1.1733778715133667,0.9768472909927368,1.102236270904541,1.139946460723877],[-1.9816957712173462,-0.640144944190979,-0.6436530947685242,-0.5416260361671448,-0.687630832195282,-0.7063151001930237,5.448031425476074,5.318234920501709,5.419436931610107,5.296531677246094,5.307316303253174,5.420525074005127,5.298611164093018,4.389428615570068,3.4522125720977783,3.3228585720062256,3.5897693634033203,-1.6848732233047485,-1.5673505067825317,-1.6205170154571533,-1.5109314918518066,-1.6190080642700195,-0.2719731628894806,-0.24567466974258423,-0.2800627052783966,-0.1518206149339676,-0.414611279964447],[0.24865880608558655,0.4950163960456848,0.5027837157249451,0.6272528171539307,0.5814982652664185,0.6914903521537781,-0.7090002298355103,-0.47611328959465027,-0.3861553966999054,-0.44137492775917053,-0.360546350479126,-0.4503614008426666,-0.2642609775066376,-0.25409987568855286,-0.37212440371513367,-0.24104514718055725,-0.4643006920814514,-0.6378217935562134,-0.663770318031311,-0.538619875907898,-0.7012379765510559,-0.47674551606178284,-1.559907078742981,-1.6794254779815674,-1.6935381889343262,-1.5810041427612305,-1.6270192861557007],[-1.821973204612732,-0.6918177604675293,-0.6652699112892151,-0.6503691077232361,-0.56008380651474,-0.5901245474815369,4.224189281463623,3.928618907928467,3.869658946990967,3.8707852363586426,4.249319076538086,3.6900177001953125,4.155272960662842,1.6956875324249268,1.8303483724594116,2.210958242416382,2.1430864334106445,-0.5864170789718628,-0.4530945122241974,-0.78509920835495,-0.7227968573570251,-0.6554930210113525,-1.073703408241272,-0.9055300951004028,-1.0121817588806152,-1.1857422590255737,-1.082998275756836],[7.451992511749268,5.2405476570129395,5.196622848510742,5.213236331939697,5.196283340454102,5.183329105377197,-1.9259812831878662,-1.852040410041809,-1.8792425394058228,-1.9062378406524658,-1.870476484298706,-1.8372251987457275,-1.7650787830352783,-0.8261607885360718,-1.0304261445999146,-0.8620631694793701,-0.9128936529159546,0.808133065700531,0.7246835231781006,0.7917497158050537,0.7372758388519287,0.9242083430290222,-0.35289832949638367,-0.3585110306739807,-0.308282732963562,-0.4093216359615326,-0.4358587861061096],[-1.885810136795044,-0.5726397037506104,-0.7386501431465149,-0.7103898525238037,-0.7373704314231873,-0.6953580975532532,5.538451194763184,5.549367904663086,5.468764781951904,5.598351001739502,5.43674898147583,5.566431045532227,5.478111743927002,4.1762895584106445,4.829862117767334,4.867747783660889,4.730859279632568,-0.9555444717407227,-0.9498891830444336,-0.9350367784500122,-0.8452792167663574,-0.7883642911911011,-1.1499733924865723,-1.2071142196655273,-1.2280346155166626,-1.2528038024902344,-1.1176235675811768]],"biases":[-4.512612342834473,-4.233341693878174,-4.621724605560303,-4.0693135261535645,-4.476996898651123,-3.976407766342163,-4.559552192687988,-4.380896091461182,-4.447620391845703,-4.96593713760376,-3.95516037940979,-4.673952102661133,-4.167573928833008,-4.470337390899658,-4.381437301635742,-4.99049711227417,-4.372068881988525,-4.989136219024658,-5.41402006149292,-4.977982044219971]},{"weights":[[-0.5606390237808228,-0.10336616635322571,0.6856977939605713,-1.6242822408676147,1.218317985534668,-4.159074783325195,-0.01814378798007965,-1.4423911571502686,0.9220354557037354,-2.5349576473236084,-4.209648609161377,-1.6566601991653442,-1.7709017992019653,0.9456201195716858,0.9018503427505493,-4.64844274520874,0.029139883816242218,-3.031162977218628,6.118953704833984,-5.1350531578063965],[0.02818719670176506,0.18950255215168,0.015886791050434113,-2.894275426864624,1.4311100244522095,-4.884384632110596,-1.1575654745101929,-4.503727912902832,0.3646725118160248,0.5944008827209473,-3.3544206619262695,0.000820351589936763,-3.3761188983917236,0.7265716195106506,0.5002924799919128,5.772266864776611,-0.2112918347120285,3.3014891147613525,-5.549934387207031,6.436098098754883],[-2.812546730041504,-6.614490985870361,-0.446457177400589,8.821751594543457,-2.0283310413360596,-4.727329254150391,3.0460498332977295,3.2800166606903076,-2.871532440185547,-1.6207371950149536,5.423807144165039,0.8958998322486877,3.3602471351623535,-2.5218186378479004,-3.6821484565734863,-3.9030966758728027,-1.8693206310272217,-1.7688508033752441,0.9585030674934387,-2.1910128593444824],[-0.8312456607818604,-6.051351070404053,-0.3171062767505646,-4.214070796966553,-2.4922502040863037,9.448535919189453,-1.2793916463851929,6.044365406036377,2.322807550430298,0.6702423095703125,-3.063443183898926,-3.4234886169433594,3.694281578063965,0.6169229745864868,2.0809240341186523,-1.1017926931381226,-4.859750747680664,-2.7214648723602295,-2.1934568881988525,-2.974402666091919]],"biases":[-0.8520709872245789,1.3350356817245483,-6.992445468902588,-6.97251558303833]}],"inputLookup":{"536":0,"1036":1,"1136":2,"1236":3,"1336":4,"1436":5,"2000":6,"2100":7,"2200":8,"2300":9,"2400":10,"2500":11,"2600":12,"2700":13,"2800":14,"2900":15,"3045":16,"4003":17,"4103":18,"4203":19,"4303":20,"4900":21,"5006":22,"6963":23,"7463":24,"8263":25,"9163":26},"inputLookupLength":27,"outputLookup":{"1233":0,"2004":1,"3151":2,"4845":3},"outputLookupLength":4,"options":{"inputSize":0,"outputSize":0,"binaryThresh":0.5,"hiddenLayers":[20],"activation":"sigmoid","leakyReluAlpha":0.01},"trainOpts":{"activation":"sigmoid","iterations":20000,"errorThresh":0.005,"log":false,"logPeriod":10,"leakyReluAlpha":0.01,"learningRate":0.3,"momentum":0.1,"callbackPeriod":10,"timeout":"Infinity","beta1":0.9,"beta2":0.999,"epsilon":1e-8}}